6 64
6 -0.0010037844 -0.003473423 0.017010605 0.026773443 -0.023001276 -0.019218277 0.019532537 0.031384453 -0.010330574 -0.0038433012 0.022021443 0.0001924404 -0.0047738184 0.017068146 -0.015022291 0.0007118748 0.006218262 0.008681245 -0.023248186 -0.011591251 0.02659142 0.018300707 0.029410314 -0.010802548 0.021026377 0.0021905869 -0.009061941 0.012040073 -0.017128395 -0.012636467 -0.014539051 -0.00468775 0.016148303 -0.027241636 -0.006803705 0.0020152077 0.016211212 -0.0024082172 0.01641803 -0.01609052 -0.017003423 0.01295468 -0.01884403 -0.015681148 0.00015440866 0.0019511906 -0.017369049 0.017923355 0.0018662225 0.016702121 -0.010378788 0.016797032 -0.00612817 0.013222921 0.022974841 -0.016112428 0.007302698 -0.017397651 -0.0030445487 0.010405366 -0.0034376355 -0.0038844955 -0.017916081 -0.015637277
5 -0.0027668413 0.00082723505 0.005711496 0.02040602 -0.011474169 -0.0024793395 0.01738061 0.029532986 -0.0045181266 -0.014428686 0.016269382 0.0033193303 0.01576459 0.004242815 -0.010812053 -0.012412451 -0.00035862625 0.011280256 0.0011822269 0.016155755 0.0026498486 0.012030943 0.026923032 -0.019164875 0.003727856 0.019127905 -0.0038143988 0.0023659938 0.001906708 -0.005159418 0.015311901 0.0060602804 -0.015370362 -0.026007157 -0.0007776729 0.016216004 -0.0130718555 0.013013702 0.023657523 0.0030678515 0.012221702 -0.0070949467 -0.0019319335 0.0035177958 -0.0050293664 -0.008907431 -0.0048334105 -0.013200234 -0.015610946 0.014089033 0.008653601 0.021376718 0.0130282445 0.02388132 0.0010443825 -0.008605301 0.0040220344 -0.01357252 0.017602125 -0.022125341 0.01131978 0.001249144 -0.018770538 0.0052564275
4 -0.0031954865 0.008180401 0.02318378 0.0034521439 -0.008017566 -0.015013726 0.0149412835 0.01901252 0.00904221 0.010680331 0.024510086 0.01730088 0.015065883 -0.006413848 -0.020476915 0.001560974 -0.0031642031 0.018419541 0.0022268454 0.0020117823 0.01354681 0.011421504 0.027986977 -0.02545834 0.007921005 0.012093449 -0.0071691056 0.015841402 0.01126005 0.0055352 -0.0017035654 0.010665681 -0.014703692 -0.008101063 -0.010429317 -0.0033374042 0.00778735 0.01491409 0.026472894 -0.015001204 0.012257347 0.014061575 -0.008786944 -0.020404777 0.008507056 0.011665288 -0.00536993 -0.009807677 -0.016848534 -0.002223039 0.011291388 0.0024181327 -0.013842418 0.016545974 0.014930416 -0.017469574 0.002354684 -0.008974017 0.003278033 -0.020973377 0.004861123 -0.010516721 -0.0075866384 -0.004047686
2 0.0030643921 -0.015593925 0.0038800684 0.016022436 0.0007478252 -0.01108884 -0.0057121576 0.023932032 -0.002132607 0.006136112 -0.00039519178 0.0007259834 0.015434309 0.017590122 -0.013099473 0.006480938 -0.011879373 0.017036656 -0.015792176 -0.0010838785 0.028069872 0.011093558 0.029875606 -0.021486757 0.017828524 0.02341458 -0.020375766 -0.005183352 -0.0152399875 -0.013431797 -0.0074499906 -0.01579695 0.012506451 -0.022645652 0.010444947 0.013696045 -0.007993012 0.013125439 0.02461655 -0.019012067 -0.012174332 0.00013990272 -0.018141942 -0.010210709 -0.0007939106 0.007180514 -0.0025725209 -0.00023132868 -0.01517302 0.0053909863 0.0014681454 0.020528741 0.0073060975 0.018873766 0.010907249 -0.01271377 -0.006365659 -0.008495006 0.0058256155 -0.0098336665 -0.01100212 -0.016387137 -0.02560991 -0.012028493
3 -0.0031609684 -0.008981219 -0.0037917283 0.002792716 0.00090779655 -0.011172582 0.020033045 0.014540872 -0.012808123 0.015905192 0.019573245 0.010738818 -0.008530909 0.013244797 0.001025447 0.010108728 0.00781882 0.008154714 -0.011271102 0.016052505 0.024830658 0.01307891 0.008738107 -0.00869211 0.009090612 -0.007678134 -0.017856495 0.0018472009 -0.00095599063 -0.013078113 -0.008479035 -0.013071199 0.0126957735 -0.010706749 -0.009413971 0.012613776 0.016332533 -0.0012050746 0.024163235 0.0029248926 0.008923268 0.0040533342 0.009772195 -0.016794791 -0.012782465 0.015998537 -0.003845099 -0.002019895 0.0025714885 -0.004887077 0.0065649487 0.01764303 0.0099480655 -0.0031143893 0.020988492 0.0010177246 0.0064681782 -0.014515768 0.015543784 -0.007397442 0.013795687 -0.011237212 -0.020565847 0.008785772
1 0.0023411745 -0.0058110435 0.021430373 0.02368658 -0.021367054 -0.001658432 0.016953837 0.01842726 0.0015110923 0.0021276209 0.009019829 -0.0037828644 -0.009441568 0.0010882139 0.0009410565 0.016185666 0.015986275 -0.0042751427 -0.021531288 0.018344788 0.015719399 0.015524973 0.02319994 -0.013133282 0.019018121 0.009721129 -0.0006908816 -0.0014127209 -0.008003096 -0.008048216 0.0052806092 -0.0016912709 -0.015044131 -0.026282841 -0.012286728 0.0034744972 0.0056510903 0.019932305 0.02072761 -0.01239579 1.5056369e-05 0.011362384 0.009077331 -0.008019596 0.0068474724 -0.007439338 -0.0049804533 0.014147446 -0.008132533 -0.013805268 0.011304498 0.00070679 -0.0015674683 0.024239952 0.0032149663 -0.013860223 -0.008033373 0.0060796738 -0.0067409873 -0.00044896855 -0.008270474 0.0066624833 -0.001160058 0.0021507177
